{"feature_order":["Age","BusinessTravel","Department","DistanceFromHome","Education","Gender","JobRole","MaritalStatus","MonthlyIncome","YearsAtCompany"],"children_left":[1,2,3,4,5,6,-1,8,9,-1,11,-1,-1,14,15,-1,17,-1,19,-1,-1,-1,23,24,-1,-1,-1,28,29,30,31,-1,-1,-1,35,-1,37,38,39,40,41,-1,-1,-1,-1,-1,47,-1,-1,-1,51,-1,-1,54,55,56,57,58,59,60,61,62,63,64,-1,-1,-1,-1,-1,-1,71,-1,-1,-1,-1,76,77,78,-1,-1,-1,82,-1,-1,85,86,-1,88,89,90,91,92,-1,-1,-1,-1,-1,98,99,-1,-1,102,-1,104,-1,106,-1,108,-1,110,-1,-1,-1,114,115,116,117,118,119,120,-1,122,-1,-1,-1,126,-1,128,-1,130,-1,132,-1,-1,-1,-1,-1,138,139,-1,-1,-1,143,144,145,146,147,-1,149,-1,-1,-1,153,-1,155,-1,157,-1,-1,160,161,162,163,-1,165,166,-1,-1,-1,170,171,172,173,-1,175,176,-1,178,-1,-1,-1,-1,-1,184,185,-1,187,188,189,-1,-1,192,193,-1,-1,196,197,-1,-1,-1,201,-1,-1,-1,205,206,207,-1,-1,210,211,212,-1,214,-1,-1,-1,218,219,220,221,222,-1,-1,-1,226,227,-1,229,-1,-1,-1,233,234,235,236,237,238,-1,240,-1,-1,-1,244,245,-1,-1,248,-1,-1,251,252,253,254,-1,-1,-1,-1,-1,260,-1,-1,263,264,265,266,267,-1,269,270,-1,-1,-1,274,-1,276,-1,-1,279,280,-1,282,-1,-1,-1,286,287,-1,289,290,-1,-1,-1,-1,-1,296,297,298,-1,300,-1,-1,-1,304,-1,306,-1,308,-1,-1,311,-1,313,-1,-1,-1,317,318,319,320,321,322,-1,324,-1,-1,-1,328,329,-1,-1,332,-1,-1,335,336,337,338,339,-1,-1,342,-1,344,-1,-1,-1,-1,349,-1,-1,352,353,-1,355,356,-1,358,-1,-1,-1,362,-1,364,-1,366,367,368,369,-1,-1,372,-1,-1,375,-1,377,378,-1,-1,-1,-1,383,384,385,-1,387,-1,389,-1,-1,392,393,394,395,396,-1,-1,-1,-1,401,-1,403,404,-1,-1,407,408,409,-1,411,-1,413,414,-1,416,-1,-1,-1,420,421,-1,-1,-1,425,-1,427,-1,-1,430,431,-1,-1,-1,435,-1,437,-1,439,-1,-1],"children_right":[142,53,50,27,22,7,-1,13,10,-1,12,-1,-1,21,16,-1,18,-1,20,-1,-1,-1,26,25,-1,-1,-1,49,34,33,32,-1,-1,-1,36,-1,46,45,44,43,42,-1,-1,-1,-1,-1,48,-1,-1,-1,52,-1,-1,113,84,75,74,73,70,69,68,67,66,65,-1,-1,-1,-1,-1,-1,72,-1,-1,-1,-1,81,80,79,-1,-1,-1,83,-1,-1,112,87,-1,97,96,95,94,93,-1,-1,-1,-1,-1,101,100,-1,-1,103,-1,105,-1,107,-1,109,-1,111,-1,-1,-1,137,136,135,134,125,124,121,-1,123,-1,-1,-1,127,-1,129,-1,131,-1,133,-1,-1,-1,-1,-1,141,140,-1,-1,-1,316,159,152,151,148,-1,150,-1,-1,-1,154,-1,156,-1,158,-1,-1,315,204,169,164,-1,168,167,-1,-1,-1,183,182,181,174,-1,180,177,-1,179,-1,-1,-1,-1,-1,203,186,-1,200,191,190,-1,-1,195,194,-1,-1,199,198,-1,-1,-1,202,-1,-1,-1,310,209,208,-1,-1,217,216,213,-1,215,-1,-1,-1,295,232,225,224,223,-1,-1,-1,231,228,-1,230,-1,-1,-1,262,259,250,243,242,239,-1,241,-1,-1,-1,247,246,-1,-1,249,-1,-1,258,257,256,255,-1,-1,-1,-1,-1,261,-1,-1,294,285,278,273,268,-1,272,271,-1,-1,-1,275,-1,277,-1,-1,284,281,-1,283,-1,-1,-1,293,288,-1,292,291,-1,-1,-1,-1,-1,303,302,299,-1,301,-1,-1,-1,305,-1,307,-1,309,-1,-1,312,-1,314,-1,-1,-1,382,351,334,327,326,323,-1,325,-1,-1,-1,331,330,-1,-1,333,-1,-1,348,347,346,341,340,-1,-1,343,-1,345,-1,-1,-1,-1,350,-1,-1,361,354,-1,360,357,-1,359,-1,-1,-1,363,-1,365,-1,381,374,371,370,-1,-1,373,-1,-1,376,-1,380,379,-1,-1,-1,-1,434,391,386,-1,388,-1,390,-1,-1,429,400,399,398,397,-1,-1,-1,-1,402,-1,406,405,-1,-1,424,419,410,-1,412,-1,418,415,-1,417,-1,-1,-1,423,422,-1,-1,-1,426,-1,428,-1,-1,433,432,-1,-1,-1,436,-1,438,-1,440,-1,-1],"feature":[8,9,3,7,3,0,-2,1,1,-2,5,-2,-2,8,8,-2,6,-2,8,-2,-2,-2,8,0,-2,-2,-2,3,1,1,3,-2,-2,-2,8,-2,8,8,5,8,8,-2,-2,-2,-2,-2,0,-2,-2,-2,0,-2,-2,0,7,3,9,8,8,9,1,8,3,7,-2,-2,-2,-2,-2,-2,6,-2,-2,-2,-2,6,8,3,-2,-2,-2,4,-2,-2,9,8,-2,0,5,2,0,8,-2,-2,-2,-2,-2,1,4,-2,-2,6,-2,8,-2,4,-2,8,-2,0,-2,-2,-2,0,8,8,9,7,3,1,-2,3,-2,-2,-2,1,-2,7,-2,5,-2,8,-2,-2,-2,-2,-2,8,9,-2,-2,-2,6,0,8,9,8,-2,3,-2,-2,-2,0,-2,4,-2,3,-2,-2,9,9,8,8,-2,8,8,-2,-2,-2,0,7,3,0,-2,3,0,-2,0,-2,-2,-2,-2,-2,4,5,-2,3,0,4,-2,-2,3,8,-2,-2,0,8,-2,-2,-2,0,-2,-2,-2,9,6,1,-2,-2,3,2,8,-2,9,-2,-2,-2,9,4,3,8,8,-2,-2,-2,8,0,-2,0,-2,-2,-2,4,8,6,8,0,0,-2,1,-2,-2,-2,3,8,-2,-2,8,-2,-2,3,8,8,5,-2,-2,-2,-2,-2,3,-2,-2,8,0,8,3,0,-2,7,5,-2,-2,-2,0,-2,3,-2,-2,0,8,-2,5,-2,-2,-2,3,6,-2,3,9,-2,-2,-2,-2,-2,8,6,8,-2,1,-2,-2,-2,8,-2,3,-2,7,-2,-2,5,-2,0,-2,-2,-2,7,9,8,9,8,3,-2,7,-2,-2,-2,0,8,-2,-2,8,-2,-2,0,9,0,8,8,-2,-2,8,-2,3,-2,-2,-2,-2,0,-2,-2,8,3,-2,8,8,-2,8,-2,-2,-2,8,-2,7,-2,9,0,8,3,-2,-2,8,-2,-2,4,-2,8,3,-2,-2,-2,-2,8,9,5,-2,8,-2,3,-2,-2,3,0,8,3,4,-2,-2,-2,-2,0,-2,8,9,-2,-2,0,9,0,-2,8,-2,8,3,-2,5,-2,-2,-2,8,8,-2,-2,-2,9,-2,5,-2,-2,4,8,-2,-2,-2,8,-2,0,-2,8,-2,-2],"threshold":[2693.5,1.5,17.5,1.5,11.0,22.5,-2.0,1.5,0.5,-2.0,0.5,-2.0,-2.0,2320.5,2067.5,-2.0,5.0,-2.0,2131.5,-2.0,-2.0,-2.0,2168.5,27.0,-2.0,-2.0,-2.0,12.5,1.5,0.5,4.5,-2.0,-2.0,-2.0,1151.0,-2.0,2561.5,2490.0,0.5,1372.0,1230.5,-2.0,-2.0,-2.0,-2.0,-2.0,25.0,-2.0,-2.0,-2.0,29.5,-2.0,-2.0,33.5,1.5,12.0,7.5,2295.0,2272.0,6.0,1.5,2162.5,2.5,0.5,-2.0,-2.0,-2.0,-2.0,-2.0,-2.0,4.5,-2.0,-2.0,-2.0,-2.0,5.0,2320.0,18.5,-2.0,-2.0,-2.0,4.5,-2.0,-2.0,7.5,2044.5,-2.0,28.5,0.5,1.5,27.5,2551.5,-2.0,-2.0,-2.0,-2.0,-2.0,1.5,1.5,-2.0,-2.0,5.0,-2.0,2326.5,-2.0,2.0,-2.0,2644.5,-2.0,30.5,-2.0,-2.0,-2.0,47.5,2405.0,2395.5,5.5,0.5,6.5,1.5,-2.0,4.0,-2.0,-2.0,-2.0,0.5,-2.0,1.5,-2.0,0.5,-2.0,2015.5,-2.0,-2.0,-2.0,-2.0,-2.0,2455.5,9.0,-2.0,-2.0,-2.0,7.5,25.5,3745.5,1.5,2844.5,-2.0,12.0,-2.0,-2.0,-2.0,23.5,-2.0,2.5,-2.0,2.0,-2.0,-2.0,37.0,2.5,2799.5,2732.5,-2.0,2751.0,2742.5,-2.0,-2.0,-2.0,31.5,1.5,19.0,28.5,-2.0,2.5,29.5,-2.0,30.5,-2.0,-2.0,-2.0,-2.0,-2.0,3.5,0.5,-2.0,21.5,36.5,2.5,-2.0,-2.0,1.5,11823.0,-2.0,-2.0,37.5,7605.5,-2.0,-2.0,-2.0,50.5,-2.0,-2.0,-2.0,30.0,0.5,0.5,-2.0,-2.0,1.5,0.5,8112.5,-2.0,21.0,-2.0,-2.0,-2.0,10.5,1.5,9.0,3070.0,2840.0,-2.0,-2.0,-2.0,6968.5,31.5,-2.0,34.0,-2.0,-2.0,-2.0,3.5,19645.0,3.5,7805.0,32.5,31.5,-2.0,1.5,-2.0,-2.0,-2.0,20.5,7983.0,-2.0,-2.0,10435.0,-2.0,-2.0,3.5,5163.5,4758.0,0.5,-2.0,-2.0,-2.0,-2.0,-2.0,6.5,-2.0,-2.0,10687.5,50.0,4220.0,9.5,28.5,-2.0,0.5,0.5,-2.0,-2.0,-2.0,34.5,-2.0,19.5,-2.0,-2.0,34.5,5327.5,-2.0,0.5,-2.0,-2.0,-2.0,16.0,4.0,-2.0,7.5,8.5,-2.0,-2.0,-2.0,-2.0,-2.0,18806.5,1.5,11584.0,-2.0,1.5,-2.0,-2.0,-2.0,18928.5,-2.0,11.0,-2.0,1.5,-2.0,-2.0,0.5,-2.0,56.5,-2.0,-2.0,-2.0,1.5,4.5,4721.5,2.5,4443.0,24.5,-2.0,0.5,-2.0,-2.0,-2.0,31.5,4524.5,-2.0,-2.0,4539.5,-2.0,-2.0,49.0,2.5,39.5,6234.0,4987.0,-2.0,-2.0,7427.5,-2.0,22.0,-2.0,-2.0,-2.0,-2.0,50.5,-2.0,-2.0,7304.5,21.5,-2.0,6326.0,5542.5,-2.0,5881.5,-2.0,-2.0,-2.0,7430.5,-2.0,0.5,-2.0,21.5,35.5,9713.5,22.0,-2.0,-2.0,10411.0,-2.0,-2.0,1.5,-2.0,7750.5,7.0,-2.0,-2.0,-2.0,-2.0,9316.5,1.5,0.5,-2.0,4688.0,-2.0,2.0,-2.0,-2.0,23.5,26.5,5005.0,3.5,2.5,-2.0,-2.0,-2.0,-2.0,32.5,-2.0,3717.5,3.5,-2.0,-2.0,51.5,6.5,33.5,-2.0,5229.5,-2.0,6011.0,9.5,-2.0,0.5,-2.0,-2.0,-2.0,4631.5,4574.5,-2.0,-2.0,-2.0,7.0,-2.0,0.5,-2.0,-2.0,2.5,5574.5,-2.0,-2.0,-2.0,9943.5,-2.0,40.5,-2.0,13815.0,-2.0,-2.0],"value":[[0.8336148648648649,0.16638513513513514],[0.6680161943319838,0.3319838056680162],[0.4594594594594595,0.5405405405405406],[0.5409836065573771,0.45901639344262296],[0.6666666666666666,0.3333333333333333],[0.75,0.25],[0.0,1.0],[0.7777777777777778,0.2222222222222222],[0.5714285714285714,0.42857142857142855],[1.0,0.0],[0.25,0.75],[1.0,0.0],[0.0,1.0],[0.85,0.15],[0.75,0.25],[1.0,0.0],[0.4,0.6],[0.0,1.0],[0.6666666666666666,0.3333333333333333],[0.0,1.0],[1.0,0.0],[1.0,0.0],[0.2,0.8],[0.5,0.5],[1.0,0.0],[0.0,1.0],[0.0,1.0],[0.39285714285714285,0.6071428571428571],[0.34615384615384615,0.6538461538461539],[0.125,0.875],[0.5,0.5],[1.0,0.0],[0.0,1.0],[0.0,1.0],[0.4444444444444444,0.5555555555555556],[0.0,1.0],[0.5333333333333333,0.4666666666666667],[0.6363636363636364,0.36363636363636365],[0.5,0.5],[0.8,0.2],[0.5,0.5],[1.0,0.0],[0.0,1.0],[1.0,0.0],[0.0,1.0],[1.0,0.0],[0.25,0.75],[0.0,1.0],[1.0,0.0],[1.0,0.0],[0.07692307692307693,0.9230769230769231],[0.0,1.0],[1.0,0.0],[0.7572254335260116,0.24277456647398843],[0.6808510638297872,0.3191489361702128],[0.7636363636363637,0.23636363636363636],[0.8421052631578947,0.15789473684210525],[0.8648648648648649,0.13513513513513514],[0.7619047619047619,0.23809523809523808],[0.8333333333333334,0.16666666666666666],[0.8823529411764706,0.11764705882352941],[0.6666666666666666,0.3333333333333333],[0.8,0.2],[0.5,0.5],[1.0,0.0],[0.0,1.0],[1.0,0.0],[0.0,1.0],[1.0,0.0],[0.0,1.0],[0.3333333333333333,0.6666666666666666],[1.0,0.0],[0.0,1.0],[1.0,0.0],[0.0,1.0],[0.5882352941176471,0.4117647058823529],[0.25,0.75],[0.6666666666666666,0.3333333333333333],[1.0,0.0],[0.0,1.0],[0.0,1.0],[0.8888888888888888,0.1111111111111111],[1.0,0.0],[0.0,1.0],[0.5641025641025641,0.4358974358974359],[0.6111111111111112,0.3888888888888889],[0.0,1.0],[0.6470588235294118,0.35294117647058826],[0.7777777777777778,0.2222222222222222],[0.5555555555555556,0.4444444444444444],[0.7142857142857143,0.2857142857142857],[0.8333333333333334,0.16666666666666666],[1.0,0.0],[0.0,1.0],[0.0,1.0],[0.0,1.0],[1.0,0.0],[0.5,0.5],[0.2,0.8],[1.0,0.0],[0.0,1.0],[0.6363636363636364,0.36363636363636365],[1.0,0.0],[0.5,0.5],[0.0,1.0],[0.6666666666666666,0.3333333333333333],[0.0,1.0],[0.8,0.2],[1.0,0.0],[0.5,0.5],[0.0,1.0],[1.0,0.0],[0.0,1.0],[0.8481012658227848,0.1518987341772152],[0.8955223880597015,0.1044776119402985],[0.8205128205128205,0.1794871794871795],[0.8421052631578947,0.15789473684210525],[0.7931034482758621,0.20689655172413793],[0.625,0.375],[0.4,0.6],[0.0,1.0],[0.6666666666666666,0.3333333333333333],[1.0,0.0],[0.0,1.0],[1.0,0.0],[0.8571428571428571,0.14285714285714285],[0.0,1.0],[0.9,0.1],[1.0,0.0],[0.7142857142857143,0.2857142857142857],[1.0,0.0],[0.3333333333333333,0.6666666666666666],[1.0,0.0],[0.0,1.0],[1.0,0.0],[0.0,1.0],[1.0,0.0],[0.5833333333333334,0.4166666666666667],[0.875,0.125],[1.0,0.0],[0.0,1.0],[0.0,1.0],[0.8772678762006404,0.12273212379935966],[0.9100775193798449,0.08992248062015504],[0.7272727272727273,0.2727272727272727],[0.8260869565217391,0.17391304347826086],[0.5,0.5],[1.0,0.0],[0.3333333333333333,0.6666666666666666],[0.0,1.0],[1.0,0.0],[1.0,0.0],[0.5,0.5],[0.0,1.0],[0.7142857142857143,0.2857142857142857],[1.0,0.0],[0.3333333333333333,0.6666666666666666],[1.0,0.0],[0.0,1.0],[0.9199346405228758,0.08006535947712418],[0.9214402618657938,0.07855973813420622],[0.8541666666666666,0.14583333333333334],[0.5,0.5],[1.0,0.0],[0.25,0.75],[0.5,0.5],[0.0,1.0],[1.0,0.0],[0.0,1.0],[0.8777777777777778,0.12222222222222222],[0.6666666666666666,0.3333333333333333],[0.7692307692307693,0.23076923076923078],[0.8333333333333334,0.16666666666666666],[1.0,0.0],[0.6666666666666666,0.3333333333333333],[0.3333333333333333,0.6666666666666666],[0.0,1.0],[0.5,0.5],[1.0,0.0],[0.0,1.0],[1.0,0.0],[0.0,1.0],[0.0,1.0],[0.92,0.08],[0.8461538461538461,0.15384615384615385],[1.0,0.0],[0.7391304347826086,0.2608695652173913],[0.8,0.2],[0.3333333333333333,0.6666666666666666],[1.0,0.0],[0.0,1.0],[0.8823529411764706,0.11764705882352941],[0.5,0.5],[0.0,1.0],[1.0,0.0],[0.9333333333333333,0.06666666666666667],[0.75,0.25],[1.0,0.0],[0.0,1.0],[1.0,0.0],[0.3333333333333333,0.6666666666666666],[0.0,1.0],[1.0,0.0],[1.0,0.0],[0.9339805825242719,0.06601941747572816],[0.9384920634920635,0.061507936507936505],[0.7142857142857143,0.2857142857142857],[0.0,1.0],[1.0,0.0],[0.9416498993963782,0.05835010060362173],[0.9875,0.0125],[0.8333333333333334,0.16666666666666666],[1.0,0.0],[0.5,0.5],[0.0,1.0],[1.0,0.0],[1.0,0.0],[0.9328537170263789,0.0671462829736211],[0.9188311688311688,0.08116883116883117],[0.8333333333333334,0.16666666666666666],[0.9444444444444444,0.05555555555555555],[0.6666666666666666,0.3333333333333333],[1.0,0.0],[0.0,1.0],[1.0,0.0],[0.6666666666666666,0.3333333333333333],[0.8,0.2],[1.0,0.0],[0.5,0.5],[0.0,1.0],[1.0,0.0],[0.0,1.0],[0.9280575539568345,0.07194244604316546],[0.9510869565217391,0.04891304347826087],[0.9560439560439561,0.04395604395604396],[0.9178082191780822,0.0821917808219178],[0.9661016949152542,0.03389830508474576],[0.9047619047619048,0.09523809523809523],[1.0,0.0],[0.5,0.5],[1.0,0.0],[0.0,1.0],[1.0,0.0],[0.7142857142857143,0.2857142857142857],[0.9,0.1],[0.0,1.0],[1.0,0.0],[0.25,0.75],[0.0,1.0],[1.0,0.0],[0.981651376146789,0.01834862385321101],[0.92,0.08],[0.75,0.25],[0.8571428571428571,0.14285714285714285],[0.0,1.0],[1.0,0.0],[0.0,1.0],[1.0,0.0],[1.0,0.0],[0.5,0.5],[0.0,1.0],[1.0,0.0],[0.8829787234042553,0.11702127659574468],[0.8513513513513513,0.14864864864864866],[0.8923076923076924,0.1076923076923077],[0.782608695652174,0.21739130434782608],[0.8823529411764706,0.11764705882352941],[0.0,1.0],[0.9375,0.0625],[0.6666666666666666,0.3333333333333333],[0.0,1.0],[1.0,0.0],[1.0,0.0],[0.5,0.5],[1.0,0.0],[0.25,0.75],[0.0,1.0],[1.0,0.0],[0.9523809523809523,0.047619047619047616],[0.8333333333333334,0.16666666666666666],[1.0,0.0],[0.6,0.4],[1.0,0.0],[0.0,1.0],[1.0,0.0],[0.5555555555555556,0.4444444444444444],[0.3333333333333333,0.6666666666666666],[1.0,0.0],[0.2,0.8],[0.5,0.5],[1.0,0.0],[0.0,1.0],[0.0,1.0],[1.0,0.0],[1.0,0.0],[0.9724770642201835,0.027522935779816515],[0.9893617021276596,0.010638297872340425],[0.9473684210526315,0.05263157894736842],[1.0,0.0],[0.6666666666666666,0.3333333333333333],[0.0,1.0],[1.0,0.0],[1.0,0.0],[0.8666666666666667,0.13333333333333333],[0.0,1.0],[0.9285714285714286,0.07142857142857142],[1.0,0.0],[0.5,0.5],[0.0,1.0],[1.0,0.0],[0.7272727272727273,0.2727272727272727],[0.0,1.0],[0.8888888888888888,0.1111111111111111],[1.0,0.0],[0.0,1.0],[0.0,1.0],[0.8047945205479452,0.1952054794520548],[0.868020304568528,0.1319796954314721],[0.7761194029850746,0.22388059701492538],[0.64,0.36],[0.8461538461538461,0.15384615384615385],[0.9166666666666666,0.08333333333333333],[1.0,0.0],[0.5,0.5],[1.0,0.0],[0.0,1.0],[0.0,1.0],[0.4166666666666667,0.5833333333333334],[0.16666666666666666,0.8333333333333334],[0.0,1.0],[1.0,0.0],[0.6666666666666666,0.3333333333333333],[1.0,0.0],[0.0,1.0],[0.8571428571428571,0.14285714285714285],[0.8888888888888888,0.1111111111111111],[0.7894736842105263,0.21052631578947367],[0.6,0.4],[0.25,0.75],[1.0,0.0],[0.0,1.0],[0.8333333333333334,0.16666666666666666],[1.0,0.0],[0.5,0.5],[0.0,1.0],[1.0,0.0],[1.0,0.0],[1.0,0.0],[0.6666666666666666,0.3333333333333333],[0.0,1.0],[1.0,0.0],[0.9153846153846154,0.08461538461538462],[0.9753086419753086,0.024691358024691357],[1.0,0.0],[0.8181818181818182,0.18181818181818182],[0.9,0.1],[1.0,0.0],[0.6666666666666666,0.3333333333333333],[0.0,1.0],[1.0,0.0],[0.0,1.0],[0.8163265306122449,0.1836734693877551],[0.0,1.0],[0.851063829787234,0.14893617021276595],[1.0,0.0],[0.7586206896551724,0.2413793103448276],[0.7857142857142857,0.21428571428571427],[0.5555555555555556,0.4444444444444444],[0.8,0.2],[1.0,0.0],[0.0,1.0],[0.25,0.75],[0.0,1.0],[1.0,0.0],[0.8947368421052632,0.10526315789473684],[0.0,1.0],[0.9444444444444444,0.05555555555555555],[0.75,0.25],[1.0,0.0],[0.0,1.0],[1.0,0.0],[0.0,1.0],[0.6736842105263158,0.3263157894736842],[0.7228915662650602,0.27710843373493976],[0.4,0.6],[0.0,1.0],[0.6666666666666666,0.3333333333333333],[1.0,0.0],[0.3333333333333333,0.6666666666666666],[0.0,1.0],[1.0,0.0],[0.7671232876712328,0.2328767123287671],[0.8059701492537313,0.19402985074626866],[0.6363636363636364,0.36363636363636365],[0.7777777777777778,0.2222222222222222],[0.5,0.5],[0.0,1.0],[1.0,0.0],[1.0,0.0],[0.0,1.0],[0.8392857142857143,0.16071428571428573],[1.0,0.0],[0.7804878048780488,0.21951219512195122],[0.3333333333333333,0.6666666666666666],[1.0,0.0],[0.0,1.0],[0.8157894736842105,0.18421052631578946],[0.8484848484848485,0.15151515151515152],[0.7333333333333333,0.26666666666666666],[0.0,1.0],[0.7857142857142857,0.21428571428571427],[1.0,0.0],[0.6666666666666666,0.3333333333333333],[0.25,0.75],[0.0,1.0],[0.5,0.5],[1.0,0.0],[0.0,1.0],[1.0,0.0],[0.9444444444444444,0.05555555555555555],[0.75,0.25],[1.0,0.0],[0.0,1.0],[1.0,0.0],[0.6,0.4],[1.0,0.0],[0.3333333333333333,0.6666666666666666],[1.0,0.0],[0.0,1.0],[0.3333333333333333,0.6666666666666666],[0.6666666666666666,0.3333333333333333],[0.0,1.0],[1.0,0.0],[0.0,1.0],[0.3333333333333333,0.6666666666666666],[0.0,1.0],[0.5714285714285714,0.42857142857142855],[1.0,0.0],[0.25,0.75],[0.0,1.0],[1.0,0.0]]}

